genomestart 1 
trait 1 0.1 0 0 0 0 0 0 0 
trait 2 0.1 0 0 0 0 0 0 0 
node 1 0 1 1 
node 2 0 1 1 
node 3 0 1 1 
node 4 0 1 1 
node 5 0 1 1 
node 6 0 1 1 
node 7 0 1 1 
node 8 0 1 1 
node 9 0 1 1 
node 10 0 1 1 
node 11 0 1 1 
node 12 0 1 3 
node 13 0 0 2 
node 14 0 0 2 
node 15 0 0 2 
node 16 0 0 2 
node 17 0 0 2 
node 18 0 0 2 
node 19 0 0 2 
node 20 0 0 2 
node 21 0 0 2 
node 22 0 0 2 
gene 1 1 13 0 0 1 0 1 
gene 1 1 14 0 0 2 0 1 
gene 1 1 15 0 0 3 0 1 
gene 1 1 16 0 0 4 0 1 
gene 1 1 17 0 0 5 0 1 
gene 1 1 18 0 0 6 0 1 
gene 1 1 19 0 0 7 0 1 
gene 1 1 20 0 0 8 0 1 
gene 1 1 21 0 0 9 0 1 
gene 1 1 22 0 0 10 0 1 
gene 1 2 13 0 0 11 0 1 
gene 1 2 14 0 0 12 0 1 
gene 1 2 15 0 0 13 0 1 
gene 1 2 16 0 0 14 0 1 
gene 1 2 17 0 0 15 0 1 
gene 1 2 18 0 0 16 0 1 
gene 1 2 19 0 0 17 0 1 
gene 1 2 20 0 0 18 0 1 
gene 1 2 21 0 0 19 0 1 
gene 1 2 22 0 0 20 0 1 
gene 1 3 13 0 0 21 0 1 
gene 1 3 14 0 0 22 0 1 
gene 1 3 15 0 0 23 0 1 
gene 1 3 16 0 0 24 0 1 
gene 1 3 17 0 0 25 0 1 
gene 1 3 18 0 0 26 0 1 
gene 1 3 19 0 0 27 0 1 
gene 1 3 20 0 0 28 0 1 
gene 1 3 21 0 0 29 0 1 
gene 1 3 22 0 0 30 0 1 
gene 1 4 13 0 0 31 0 1 
gene 1 4 14 0 0 32 0 1 
gene 1 4 15 0 0 33 0 1 
gene 1 4 16 0 0 34 0 1 
gene 1 4 17 0 0 35 0 1 
gene 1 4 18 0 0 36 0 1 
gene 1 4 19 0 0 37 0 1 
gene 1 4 20 0 0 38 0 1 
gene 1 4 21 0 0 39 0 1 
gene 1 4 22 0 0 40 0 1 
gene 1 5 13 0 0 41 0 1 
gene 1 5 14 0 0 42 0 1 
gene 1 5 15 0 0 43 0 1 
gene 1 5 16 0 0 44 0 1 
gene 1 5 17 0 0 45 0 1 
gene 1 5 18 0 0 46 0 1 
gene 1 5 19 0 0 47 0 1 
gene 1 5 20 0 0 48 0 1 
gene 1 5 21 0 0 49 0 1 
gene 1 5 22 0 0 50 0 1 
gene 1 6 13 0 0 51 0 1 
gene 1 6 14 0 0 52 0 1 
gene 1 6 15 0 0 53 0 1 
gene 1 6 16 0 0 54 0 1 
gene 1 6 17 0 0 55 0 1 
gene 1 6 18 0 0 56 0 1 
gene 1 6 19 0 0 57 0 1 
gene 1 6 20 0 0 58 0 1 
gene 1 6 21 0 0 59 0 1 
gene 1 6 22 0 0 60 0 1 
gene 1 7 13 0 0 61 0 1 
gene 1 7 14 0 0 62 0 1 
gene 1 7 15 0 0 63 0 1 
gene 1 7 16 0 0 64 0 1 
gene 1 7 17 0 0 65 0 1 
gene 1 7 18 0 0 66 0 1 
gene 1 7 19 0 0 67 0 1 
gene 1 7 20 0 0 68 0 1 
gene 1 7 21 0 0 69 0 1 
gene 1 7 22 0 0 70 0 1 
gene 1 8 13 0 0 71 0 1 
gene 1 8 14 0 0 72 0 1 
gene 1 8 15 0 0 73 0 1 
gene 1 8 16 0 0 74 0 1 
gene 1 8 17 0 0 75 0 1 
gene 1 8 18 0 0 76 0 1 
gene 1 8 19 0 0 77 0 1 
gene 1 8 20 0 0 78 0 1 
gene 1 8 21 0 0 79 0 1 
gene 1 8 22 0 0 80 0 1 
gene 1 9 13 0 0 81 0 1 
gene 1 9 14 0 0 82 0 1 
gene 1 9 15 0 0 83 0 1 
gene 1 9 16 0 0 84 0 1 
gene 1 9 17 0 0 85 0 1 
gene 1 9 18 0 0 86 0 1 
gene 1 9 19 0 0 87 0 1 
gene 1 9 20 0 0 88 0 1 
gene 1 9 21 0 0 89 0 1 
gene 1 9 22 0 0 90 0 1 
gene 1 10 13 0 0 91 0 1 
gene 1 10 14 0 0 92 0 1 
gene 1 10 15 0 0 93 0 1 
gene 1 10 16 0 0 94 0 1 
gene 1 10 17 0 0 95 0 1 
gene 1 10 18 0 0 96 0 1 
gene 1 10 19 0 0 97 0 1 
gene 1 10 20 0 0 98 0 1 
gene 1 10 21 0 0 99 0 1 
gene 1 10 22 0 0 100 0 1 
gene 1 11 13 0 0 101 0 1 
gene 1 11 14 0 0 102 0 1 
gene 1 11 15 0 0 103 0 1 
gene 1 11 16 0 0 104 0 1 
gene 1 11 17 0 0 105 0 1 
gene 1 11 18 0 0 106 0 1 
gene 1 11 19 0 0 107 0 1 
gene 1 11 20 0 0 108 0 1 
gene 1 11 21 0 0 109 0 1 
gene 1 11 22 0 0 110 0 1 
gene 1 12 13 0 0 111 0 1 
gene 1 12 14 0 0 112 0 1 
gene 1 12 15 0 0 113 0 1 
gene 1 12 16 0 0 114 0 1 
gene 1 12 17 0 0 115 0 1 
gene 1 12 18 0 0 116 0 1 
gene 1 12 19 0 0 117 0 1 
gene 1 12 20 0 0 118 0 1 
gene 1 12 21 0 0 119 0 1 
gene 1 12 22 0 0 120 0 1 
genomeend 1
